<?xml version="1.0"?>
<MethodSetup Method="BDT::BDT">
  <GeneralInfo>
    <Info name="TMVA Release" value="4.1.4 [262404]"/>
    <Info name="ROOT Release" value="5.34/04 [336388]"/>
    <Info name="Creator" value="mukul"/>
    <Info name="Date" value="Fri Apr 19 12:43:12 2013"/>
    <Info name="Host" value="Darwin proof.cern.ch 12.2.0 Darwin Kernel Version 12.2.0: Sat Aug 25 00:48:52 PDT 2012; root:xnu-2050.18.24~1/RELEASE_X86_64 x86_64"/>
    <Info name="Dir" value="/Users/mukul/Dropbox/Rice/2012 Fall/Thesis/squark-search"/>
    <Info name="Training events" value="180"/>
    <Info name="TrainingTime" value="5.43169975e-02"/>
    <Info name="AnalysisType" value="Classification"/>
  </GeneralInfo>
  <Options>
    <Option name="V" modified="Yes">False</Option>
    <Option name="VerbosityLevel" modified="No">Default</Option>
    <Option name="VarTransform" modified="No">None</Option>
    <Option name="H" modified="Yes">True</Option>
    <Option name="CreateMVAPdfs" modified="No">False</Option>
    <Option name="IgnoreNegWeightsInTraining" modified="No">False</Option>
    <Option name="NTrees" modified="Yes">13</Option>
    <Option name="RenormByClass" modified="No">False</Option>
    <Option name="BoostType" modified="No">AdaBoost</Option>
    <Option name="AdaBoostR2Loss" modified="No">quadratic</Option>
    <Option name="UseBaggedGrad" modified="No">False</Option>
    <Option name="GradBaggingFraction" modified="No">6.000000e-01</Option>
    <Option name="Shrinkage" modified="No">1.000000e+00</Option>
    <Option name="AdaBoostBeta" modified="Yes">5.000000e-01</Option>
    <Option name="UseRandomisedTrees" modified="No">False</Option>
    <Option name="UseNvars" modified="No">4</Option>
    <Option name="UsePoissonNvars" modified="No">True</Option>
    <Option name="UseNTrainEvents" modified="No">180</Option>
    <Option name="UseWeightedTrees" modified="No">True</Option>
    <Option name="UseYesNoLeaf" modified="No">True</Option>
    <Option name="NodePurityLimit" modified="No">5.000000e-01</Option>
    <Option name="SeparationType" modified="No">giniindex</Option>
    <Option name="nEventsMin" modified="Yes">100</Option>
    <Option name="nCuts" modified="No">20</Option>
    <Option name="UseFisherCuts" modified="No">False</Option>
    <Option name="MinLinCorrForFisher" modified="No">8.000000e-01</Option>
    <Option name="UseExclusiveVars" modified="No">False</Option>
    <Option name="PruneStrength" modified="Yes">5.000000e-01</Option>
    <Option name="PruneMethod" modified="No">nopruning</Option>
    <Option name="PruneBeforeBoost" modified="No">False</Option>
    <Option name="PruningValFraction" modified="No">5.000000e-01</Option>
    <Option name="NNodesMax" modified="No">100000</Option>
    <Option name="MaxDepth" modified="No">3</Option>
    <Option name="DoBoostMonitor" modified="No">False</Option>
    <Option name="NegWeightTreatment" modified="No">inverseboostnegweights</Option>
  </Options>
  <Variables NVar="12">
    <Variable VarIndex="0" Expression="m3a" Label="m3a" Title="m3a" Unit="" Internal="m3a" Type="F" Min="1.14554771e+02" Max="1.20854028e+03"/>
    <Variable VarIndex="1" Expression="m2a" Label="m2a" Title="m2a" Unit="" Internal="m2a" Type="F" Min="4.78837128e+01" Max="1.06818481e+03"/>
    <Variable VarIndex="2" Expression="angles_b_a" Label="angles_b_a" Title="angles_b_a" Unit="" Internal="angles_b_a" Type="F" Min="6.53999974e-04" Max="3.12500596e+00"/>
    <Variable VarIndex="3" Expression="angles_j1_a" Label="angles_j1_a" Title="angles_j1_a" Unit="" Internal="angles_j1_a" Type="F" Min="6.92339987e-02" Max="3.13578796e+00"/>
    <Variable VarIndex="4" Expression="angles_j2_a" Label="angles_j2_a" Title="angles_j2_a" Unit="" Internal="angles_j2_a" Type="F" Min="1.89759992e-02" Max="3.13526106e+00"/>
    <Variable VarIndex="5" Expression="m3b" Label="m3b" Title="m3b" Unit="" Internal="m3b" Type="F" Min="1.23280647e+02" Max="1.12601367e+03"/>
    <Variable VarIndex="6" Expression="m2b" Label="m2b" Title="m2b" Unit="" Internal="m2b" Type="F" Min="2.16567421e+01" Max="6.12695679e+02"/>
    <Variable VarIndex="7" Expression="angles_b_b" Label="angles_b_b" Title="angles_b_b" Unit="" Internal="angles_b_b" Type="F" Min="7.10899988e-03" Max="3.12683010e+00"/>
    <Variable VarIndex="8" Expression="angles_j1_b" Label="angles_j1_b" Title="angles_j1_b" Unit="" Internal="angles_j1_b" Type="F" Min="4.77299988e-02" Max="3.10717201e+00"/>
    <Variable VarIndex="9" Expression="angles_j2_b" Label="angles_j2_b" Title="angles_j2_b" Unit="" Internal="angles_j2_b" Type="F" Min="2.53710002e-02" Max="3.12162209e+00"/>
    <Variable VarIndex="10" Expression="mT_b" Label="mT_b" Title="mT_b" Unit="" Internal="mT_b" Type="F" Min="1.12061000e+00" Max="1.53964312e+06"/>
    <Variable VarIndex="11" Expression="eT_missing" Label="eT_missing" Title="eT_missing" Unit="" Internal="eT_missing" Type="F" Min="1.01169113e+02" Max="9.52968262e+02"/>
  </Variables>
  <Spectators NSpec="0"/>
  <Classes NClass="2">
    <Class Name="Signal" Index="0"/>
    <Class Name="Background" Index="1"/>
  </Classes>
  <Transformations NTransformations="0"/>
  <MVAPdfs/>
  <Weights NTrees="13" AnalysisType="0">
    <BinaryTree type="DecisionTree" boostWeight="0.0000000000000000e+00" itree="0">
      <Node pos="s" depth="0" NCoef="0" IVar="-1" Cut="0.0000000000000000e+00" cType="1" res="-9.9000000000000000e+01" rms="0.0000000000000000e+00" purity="5.0000000000000000e-01" nType="-1"/>
    </BinaryTree>
    <BinaryTree type="DecisionTree" boostWeight="0.0000000000000000e+00" itree="1">
      <Node pos="s" depth="0" NCoef="0" IVar="-1" Cut="0.0000000000000000e+00" cType="1" res="-9.9000000000000000e+01" rms="0.0000000000000000e+00" purity="5.0000000000000000e-01" nType="-1"/>
    </BinaryTree>
    <BinaryTree type="DecisionTree" boostWeight="0.0000000000000000e+00" itree="2">
      <Node pos="s" depth="0" NCoef="0" IVar="-1" Cut="0.0000000000000000e+00" cType="1" res="-9.9000000000000000e+01" rms="0.0000000000000000e+00" purity="5.0000000000000000e-01" nType="-1"/>
    </BinaryTree>
    <BinaryTree type="DecisionTree" boostWeight="0.0000000000000000e+00" itree="3">
      <Node pos="s" depth="0" NCoef="0" IVar="-1" Cut="0.0000000000000000e+00" cType="1" res="-9.9000000000000000e+01" rms="0.0000000000000000e+00" purity="5.0000000000000000e-01" nType="-1"/>
    </BinaryTree>
    <BinaryTree type="DecisionTree" boostWeight="0.0000000000000000e+00" itree="4">
      <Node pos="s" depth="0" NCoef="0" IVar="-1" Cut="0.0000000000000000e+00" cType="1" res="-9.9000000000000000e+01" rms="0.0000000000000000e+00" purity="5.0000000000000000e-01" nType="-1"/>
    </BinaryTree>
    <BinaryTree type="DecisionTree" boostWeight="0.0000000000000000e+00" itree="5">
      <Node pos="s" depth="0" NCoef="0" IVar="-1" Cut="0.0000000000000000e+00" cType="1" res="-9.9000000000000000e+01" rms="0.0000000000000000e+00" purity="5.0000000000000000e-01" nType="-1"/>
    </BinaryTree>
    <BinaryTree type="DecisionTree" boostWeight="0.0000000000000000e+00" itree="6">
      <Node pos="s" depth="0" NCoef="0" IVar="-1" Cut="0.0000000000000000e+00" cType="1" res="-9.9000000000000000e+01" rms="0.0000000000000000e+00" purity="5.0000000000000000e-01" nType="-1"/>
    </BinaryTree>
    <BinaryTree type="DecisionTree" boostWeight="0.0000000000000000e+00" itree="7">
      <Node pos="s" depth="0" NCoef="0" IVar="-1" Cut="0.0000000000000000e+00" cType="1" res="-9.9000000000000000e+01" rms="0.0000000000000000e+00" purity="5.0000000000000000e-01" nType="-1"/>
    </BinaryTree>
    <BinaryTree type="DecisionTree" boostWeight="0.0000000000000000e+00" itree="8">
      <Node pos="s" depth="0" NCoef="0" IVar="-1" Cut="0.0000000000000000e+00" cType="1" res="-9.9000000000000000e+01" rms="0.0000000000000000e+00" purity="5.0000000000000000e-01" nType="-1"/>
    </BinaryTree>
    <BinaryTree type="DecisionTree" boostWeight="0.0000000000000000e+00" itree="9">
      <Node pos="s" depth="0" NCoef="0" IVar="-1" Cut="0.0000000000000000e+00" cType="1" res="-9.9000000000000000e+01" rms="0.0000000000000000e+00" purity="5.0000000000000000e-01" nType="-1"/>
    </BinaryTree>
    <BinaryTree type="DecisionTree" boostWeight="0.0000000000000000e+00" itree="10">
      <Node pos="s" depth="0" NCoef="0" IVar="-1" Cut="0.0000000000000000e+00" cType="1" res="-9.9000000000000000e+01" rms="0.0000000000000000e+00" purity="5.0000000000000000e-01" nType="-1"/>
    </BinaryTree>
    <BinaryTree type="DecisionTree" boostWeight="0.0000000000000000e+00" itree="11">
      <Node pos="s" depth="0" NCoef="0" IVar="-1" Cut="0.0000000000000000e+00" cType="1" res="-9.9000000000000000e+01" rms="0.0000000000000000e+00" purity="5.0000000000000000e-01" nType="-1"/>
    </BinaryTree>
    <BinaryTree type="DecisionTree" boostWeight="0.0000000000000000e+00" itree="12">
      <Node pos="s" depth="0" NCoef="0" IVar="-1" Cut="0.0000000000000000e+00" cType="1" res="-9.9000000000000000e+01" rms="0.0000000000000000e+00" purity="5.0000000000000000e-01" nType="-1"/>
    </BinaryTree>
  </Weights>
</MethodSetup>
